<?xml version="1.0"?>
<opencv_storage>
<stage7>
  <maxWeakCount>6</maxWeakCount>
  <stageThreshold>-7.3472726345062256e-01</stageThreshold>
  <weakClassifiers>
    <_>
      <internalNodes>
        0 -1 200581 -8.8490848429501057e-04</internalNodes>
      <leafValues>
        2.7777779102325439e-01 -6.8786126375198364e-01</leafValues></_>
    <_>
      <internalNodes>
        0 -1 65284 -4.4786632061004639e-03</internalNodes>
      <leafValues>
        6.5847569704055786e-01 -3.9066284894943237e-01</leafValues></_>
    <_>
      <internalNodes>
        0 -1 9260 3.3872348722070456e-03</internalNodes>
      <leafValues>
        -6.7629408836364746e-01 3.5675537586212158e-01</leafValues></_>
    <_>
      <internalNodes>
        0 -1 228155 6.6693709231913090e-04</internalNodes>
      <leafValues>
        2.1862430870532990e-01 -9.3500494956970215e-01</leafValues></_>
    <_>
      <internalNodes>
        0 -1 156264 5.6083028903231025e-04</internalNodes>
      <leafValues>
        -5.1112037897109985e-01 4.8074543476104736e-01</leafValues></_>
    <_>
      <internalNodes>
        0 -1 159041 1.1596368625760078e-02</internalNodes>
      <leafValues>
        -5.9566873311996460e-01 4.5143863558769226e-01</leafValues></_></weakClassifiers></stage7>
</opencv_storage>
